34 128
34 -0.116137 -0.129107 0.124373 0.035591 0.096147 -0.142956 0.092753 0.012090 -0.025341 0.019812 -0.086909 0.089482 0.104894 -0.170066 -0.095622 -0.181842 0.054627 -0.081116 0.103793 0.147776 0.197520 0.000640 0.155939 -0.000614 0.016155 -0.043717 -0.051476 0.048557 -0.015757 0.130916 0.002936 0.123434 -0.145801 0.036895 -0.107149 -0.108332 0.216568 0.109616 0.081348 0.075614 -0.224981 0.046852 0.121896 0.199488 -0.021961 0.027155 -0.005278 -0.170611 -0.097251 0.068194 0.010888 0.116088 0.128221 0.115700 -0.240527 -0.139350 -0.111154 -0.028156 -0.043996 -0.020898 0.097873 -0.126876 -0.094856 0.123360 0.119704 -0.116962 -0.025509 -0.075104 0.076459 -0.076475 -0.018913 -0.003226 0.015020 -0.048582 0.053036 -0.118440 0.054042 0.131826 -0.021861 0.100621 -0.033364 -0.262226 -0.058022 -0.236448 -0.105319 0.226026 0.009143 -0.037561 -0.088569 0.028824 -0.030483 0.049421 0.012728 -0.048139 -0.191719 0.162676 -0.179865 0.001891 0.054056 -0.041123 -0.273669 0.097984 -0.111665 -0.050850 -0.054936 0.004451 0.168783 0.007933 -0.075384 -0.097032 0.037408 -0.050345 0.003543 0.019970 -0.103566 0.056440 -0.067956 0.272359 -0.183150 0.134744 -0.054238 -0.099957 -0.007180 -0.209537 -0.184766 0.152298 0.075523 0.102795
1 -0.059996 -0.176280 0.059165 0.055929 0.006098 -0.147541 0.120062 0.115772 0.093199 0.000956 -0.050014 0.165893 0.087403 -0.215391 -0.004605 -0.166251 -0.017086 -0.169106 0.094836 0.062463 0.162095 -0.064337 0.049300 -0.016772 0.082621 -0.020524 -0.083933 0.027193 0.024787 0.092296 -0.036513 0.076700 -0.117297 -0.007207 -0.114033 -0.156898 0.243360 0.088389 0.038019 0.006129 -0.157509 -0.063858 0.141410 0.268704 -0.073752 0.025666 0.040593 -0.117277 -0.061377 0.091484 -0.110718 0.100459 0.082117 0.076637 -0.203602 -0.163228 -0.123938 0.038007 0.035914 -0.108694 0.175864 -0.154395 -0.016366 0.146879 0.020874 -0.022272 -0.047143 0.035128 0.065595 -0.132475 -0.090473 0.023567 -0.020192 -0.074297 0.111784 -0.016840 0.081125 0.046770 -0.018889 -0.037290 -0.007490 -0.173163 -0.030195 -0.095275 -0.143861 0.070687 0.114580 -0.041209 0.021295 0.021482 0.069774 0.002579 0.004687 -0.002314 -0.178139 0.062333 -0.052695 -0.177875 0.032545 0.064736 -0.159247 0.024687 -0.130171 -0.055016 -0.080065 -0.036590 0.095469 -0.012516 -0.051775 -0.066035 0.028270 0.041123 0.038941 0.038166 -0.154329 0.073816 -0.077198 0.256111 -0.181068 0.033896 -0.023789 0.000049 0.078925 -0.181724 -0.238967 0.014237 0.119599 0.169119
33 -0.105518 -0.137135 0.110708 0.041246 0.080526 -0.143311 0.094247 0.033674 0.000551 0.015145 -0.074929 0.102071 0.098233 -0.178273 -0.073637 -0.173957 0.037411 -0.095821 0.097223 0.131223 0.192812 -0.011899 0.135529 -0.005114 0.025533 -0.038438 -0.061505 0.043391 -0.006114 0.124005 -0.006439 0.116324 -0.138262 0.031027 -0.114239 -0.121909 0.220342 0.107021 0.069080 0.065628 -0.214068 0.027646 0.126849 0.209194 -0.031278 0.031242 0.001883 -0.163098 -0.094570 0.069325 -0.012165 0.115068 0.119905 0.103812 -0.234280 -0.139614 -0.115775 -0.016870 -0.025197 -0.033941 0.116190 -0.135859 -0.079490 0.129040 0.105678 -0.102730 -0.025501 -0.054652 0.074157 -0.085003 -0.025811 0.000395 0.012057 -0.051670 0.061743 -0.097121 0.062330 0.115319 -0.021201 0.074448 -0.023288 -0.247871 -0.054342 -0.215295 -0.114231 0.199086 0.029021 -0.040760 -0.067945 0.026924 -0.006248 0.044156 0.011539 -0.040296 -0.187747 0.148971 -0.159842 -0.035184 0.054802 -0.022778 -0.255969 0.080902 -0.118882 -0.046533 -0.056817 -0.006394 0.154585 0.005708 -0.068625 -0.096430 0.036320 -0.032611 0.010221 0.017258 -0.112439 0.063532 -0.072062 0.268077 -0.187107 0.113897 -0.046268 -0.083147 0.010592 -0.207337 -0.194811 0.125333 0.082216 0.113120
3 -0.088200 -0.150703 0.090334 0.045762 0.045702 -0.145899 0.108986 0.067710 0.033832 0.007489 -0.064007 0.128680 0.090812 -0.200772 -0.045508 -0.177831 0.016672 -0.132537 0.096981 0.099937 0.173071 -0.031574 0.092408 -0.007992 0.054074 -0.028556 -0.069692 0.041720 0.014180 0.112712 -0.022724 0.092973 -0.131931 0.017948 -0.112902 -0.140234 0.238599 0.102649 0.059362 0.043462 -0.183430 -0.022573 0.129640 0.242659 -0.051986 0.026601 0.021249 -0.143466 -0.087742 0.081004 -0.053484 0.101067 0.102143 0.093885 -0.224877 -0.155775 -0.120691 0.007398 -0.004430 -0.067828 0.136735 -0.141476 -0.050908 0.141506 0.068171 -0.067815 -0.033414 -0.011999 0.072825 -0.113445 -0.058106 0.012966 -0.006385 -0.063644 0.089813 -0.062816 0.071738 0.082976 -0.017818 0.023835 -0.016938 -0.213217 -0.045704 -0.162130 -0.124153 0.146082 0.071168 -0.038467 -0.028923 0.021938 0.025305 0.023578 0.003613 -0.024122 -0.186803 0.105199 -0.116526 -0.095122 0.042653 0.016567 -0.211890 0.054350 -0.128646 -0.051686 -0.064780 -0.014775 0.127290 -0.006418 -0.059779 -0.085852 0.034575 0.001652 0.026020 0.032469 -0.132866 0.069895 -0.077010 0.266642 -0.174196 0.075966 -0.039417 -0.050990 0.037757 -0.196360 -0.215169 0.076305 0.101429 0.141320
2 -0.056000 -0.173175 0.058667 0.056269 0.004132 -0.148600 0.122544 0.114301 0.077119 0.000504 -0.052421 0.169491 0.093180 -0.220882 -0.007804 -0.172795 -0.021907 -0.162184 0.093745 0.069359 0.165858 -0.060953 0.059410 -0.020630 0.075810 -0.017385 -0.086897 0.028686 0.031312 0.097916 -0.031603 0.075245 -0.126163 0.002480 -0.117916 -0.152969 0.254618 0.086553 0.040930 0.013980 -0.156496 -0.060789 0.140014 0.271761 -0.073989 0.026371 0.036720 -0.123895 -0.069370 0.083389 -0.107121 0.090340 0.092444 0.077710 -0.213588 -0.166395 -0.122846 0.037370 0.028720 -0.103815 0.172620 -0.150541 -0.017262 0.147716 0.027350 -0.021238 -0.046819 0.029112 0.067087 -0.130651 -0.092033 0.026769 -0.017366 -0.077813 0.112080 -0.010993 0.082360 0.049819 -0.016232 -0.028743 -0.008145 -0.183007 -0.037889 -0.102749 -0.137699 0.090542 0.112935 -0.040671 0.020329 0.017864 0.070322 0.007824 0.000585 -0.012921 -0.185153 0.064925 -0.061928 -0.173773 0.025892 0.065027 -0.161556 0.018804 -0.133373 -0.057322 -0.080500 -0.042112 0.101449 -0.010818 -0.054201 -0.069229 0.023538 0.043675 0.041820 0.036181 -0.158318 0.075170 -0.080758 0.264115 -0.185258 0.035778 -0.027362 -0.009473 0.080590 -0.190159 -0.235166 0.020731 0.124727 0.169911
32 -0.102898 -0.154609 0.098439 0.042136 0.065580 -0.147388 0.107546 0.046137 0.016279 0.014612 -0.075648 0.123252 0.098342 -0.189087 -0.064966 -0.179122 0.030242 -0.122568 0.098864 0.124059 0.193088 -0.017333 0.120149 -0.007637 0.035444 -0.037960 -0.072315 0.044484 -0.001324 0.122226 -0.012753 0.111783 -0.134528 0.021097 -0.119497 -0.134992 0.239727 0.113142 0.063760 0.049224 -0.214933 0.007514 0.130506 0.231153 -0.045428 0.031559 0.013470 -0.153452 -0.092579 0.073465 -0.034082 0.118114 0.111364 0.104646 -0.236033 -0.155674 -0.121276 -0.006973 -0.015787 -0.054392 0.130672 -0.141930 -0.069658 0.141795 0.082790 -0.089632 -0.034652 -0.031100 0.073249 -0.102096 -0.047039 0.012319 0.004120 -0.061855 0.073005 -0.085010 0.063830 0.106999 -0.024821 0.053914 -0.024778 -0.237550 -0.044135 -0.191735 -0.123601 0.181448 0.049762 -0.039011 -0.051793 0.021272 0.006272 0.036262 0.014624 -0.035034 -0.186469 0.131100 -0.137449 -0.062286 0.047236 -0.013084 -0.240378 0.071329 -0.127552 -0.053449 -0.058574 -0.004150 0.150796 -0.000315 -0.070476 -0.088470 0.035581 -0.022115 0.019210 0.028959 -0.120819 0.067501 -0.075357 0.275671 -0.180994 0.097072 -0.045865 -0.072808 0.021030 -0.205297 -0.205948 0.105031 0.085648 0.132481
4 -0.065195 -0.152054 0.067162 0.050380 0.021147 -0.143671 0.106775 0.097818 0.062261 0.001492 -0.050695 0.150505 0.091327 -0.206421 -0.021350 -0.168065 -0.006125 -0.148653 0.094315 0.079847 0.161883 -0.048941 0.060305 -0.017266 0.067968 -0.017243 -0.078610 0.036157 0.026806 0.095086 -0.030846 0.074760 -0.122109 0.005999 -0.111165 -0.145025 0.242394 0.092681 0.048660 0.026983 -0.157360 -0.050739 0.133996 0.256512 -0.060049 0.020609 0.029342 -0.128061 -0.075927 0.076626 -0.081128 0.085404 0.092935 0.082329 -0.209190 -0.153645 -0.115930 0.025156 0.018159 -0.093381 0.157784 -0.145388 -0.025850 0.139372 0.043946 -0.031448 -0.045540 0.015531 0.066427 -0.122819 -0.077559 0.022129 -0.009547 -0.074827 0.103511 -0.030657 0.078863 0.060936 -0.020071 -0.006245 -0.008364 -0.190331 -0.038807 -0.115535 -0.127058 0.102269 0.100992 -0.041181 0.006930 0.020427 0.048251 0.009159 -0.004414 -0.016183 -0.179109 0.074398 -0.081602 -0.142918 0.029582 0.045014 -0.173982 0.031068 -0.120418 -0.047988 -0.076221 -0.027791 0.101078 -0.009535 -0.058119 -0.074361 0.031682 0.025280 0.034587 0.036681 -0.142779 0.073853 -0.077747 0.255264 -0.172335 0.048637 -0.027535 -0.021124 0.056791 -0.187950 -0.222216 0.038104 0.115741 0.155557
24 -0.106720 -0.139896 0.114645 0.041282 0.080174 -0.143924 0.098724 0.028233 0.001583 0.018985 -0.075652 0.104080 0.102638 -0.180610 -0.080410 -0.181623 0.040387 -0.104973 0.101075 0.133166 0.196180 -0.008005 0.137415 0.004190 0.029838 -0.038916 -0.063374 0.041349 -0.013553 0.128949 -0.009381 0.118788 -0.142598 0.021845 -0.110287 -0.123740 0.225527 0.108905 0.070354 0.057159 -0.218966 0.031042 0.124612 0.214378 -0.031997 0.034112 0.001456 -0.156413 -0.092124 0.069265 -0.006896 0.121178 0.112535 0.110482 -0.226894 -0.140671 -0.112257 -0.019701 -0.028414 -0.037767 0.112376 -0.133594 -0.076971 0.129316 0.098638 -0.106286 -0.030002 -0.049300 0.070548 -0.086494 -0.027666 0.005756 0.006327 -0.054078 0.063537 -0.107166 0.054429 0.115480 -0.026263 0.080428 -0.024753 -0.243968 -0.050810 -0.210454 -0.119691 0.195138 0.024972 -0.035093 -0.070670 0.027684 -0.014105 0.042192 0.017454 -0.039346 -0.187099 0.152442 -0.154397 -0.028323 0.054157 -0.027803 -0.262836 0.091435 -0.116759 -0.049244 -0.059011 0.002688 0.159119 0.006650 -0.071042 -0.092525 0.041813 -0.039554 0.008690 0.020944 -0.115908 0.060782 -0.073705 0.271040 -0.181072 0.121596 -0.048615 -0.086423 0.006929 -0.211298 -0.195309 0.133700 0.081208 0.121029
14 -0.057452 -0.168665 0.062015 0.050528 0.007872 -0.143379 0.113833 0.108466 0.077012 0.004013 -0.053329 0.163050 0.086052 -0.214894 -0.003503 -0.163757 -0.016189 -0.157337 0.093778 0.062577 0.159415 -0.053837 0.049429 -0.018959 0.073371 -0.011412 -0.076981 0.033492 0.026106 0.096634 -0.032236 0.074461 -0.121042 0.004671 -0.107304 -0.153917 0.245760 0.085654 0.037829 0.016146 -0.152194 -0.064218 0.134634 0.267736 -0.071444 0.027330 0.036747 -0.115225 -0.068135 0.088009 -0.108013 0.087873 0.086625 0.077818 -0.204483 -0.162138 -0.123903 0.038461 0.026085 -0.109281 0.167676 -0.151843 -0.015639 0.141220 0.023030 -0.019854 -0.040769 0.025318 0.067913 -0.128943 -0.093710 0.028134 -0.023703 -0.070222 0.114229 -0.009543 0.076682 0.045397 -0.017214 -0.034787 -0.006827 -0.171688 -0.031580 -0.090844 -0.137595 0.083428 0.111091 -0.040136 0.022546 0.018391 0.067701 0.000671 -0.001580 -0.010624 -0.174847 0.059315 -0.060692 -0.167053 0.028338 0.061376 -0.156513 0.016929 -0.129090 -0.048007 -0.079651 -0.036324 0.096871 -0.011495 -0.054501 -0.069410 0.021702 0.038845 0.039133 0.041661 -0.148484 0.071046 -0.081849 0.247428 -0.173037 0.032250 -0.024669 -0.009665 0.077044 -0.179123 -0.222913 0.013119 0.115453 0.161757
7 -0.039310 -0.197070 0.029427 0.070918 -0.026703 -0.147537 0.138664 0.151363 0.142109 -0.006780 -0.036569 0.201734 0.080041 -0.236896 0.030659 -0.159529 -0.041257 -0.208020 0.087672 0.041180 0.155364 -0.089920 0.015999 -0.022944 0.112857 -0.022871 -0.108375 0.009150 0.030311 0.086929 -0.041938 0.068275 -0.113445 -0.031007 -0.121053 -0.179473 0.269033 0.088480 0.013404 -0.012490 -0.148001 -0.098240 0.154355 0.303702 -0.095042 0.031537 0.066899 -0.104309 -0.054788 0.102284 -0.154503 0.105060 0.070889 0.062724 -0.196467 -0.183384 -0.135021 0.053030 0.075486 -0.146640 0.210312 -0.166058 0.012547 0.167606 -0.010700 0.005739 -0.054147 0.076679 0.072526 -0.157696 -0.117993 0.042792 -0.043236 -0.082422 0.139875 0.018269 0.083452 0.028375 -0.023635 -0.082886 0.004534 -0.136940 -0.017424 -0.040785 -0.162514 0.019097 0.153464 -0.040000 0.049846 0.021499 0.105618 -0.013696 0.006915 0.017796 -0.176116 0.034303 -0.003666 -0.244853 0.022830 0.099283 -0.128712 0.001057 -0.150201 -0.058748 -0.097034 -0.059416 0.066799 -0.024464 -0.038186 -0.057199 0.031735 0.079277 0.050355 0.039271 -0.175057 0.086104 -0.086921 0.257796 -0.184599 0.007273 -0.013904 0.035157 0.119239 -0.176290 -0.273267 -0.032459 0.139659 0.202603
6 -0.039454 -0.192074 0.031559 0.073938 -0.024435 -0.143128 0.135246 0.148832 0.136989 -0.005880 -0.031082 0.196144 0.074727 -0.228333 0.031078 -0.155080 -0.042722 -0.205640 0.088452 0.035583 0.146575 -0.088887 0.011720 -0.027162 0.111471 -0.022188 -0.100475 0.005999 0.031687 0.088287 -0.041843 0.059324 -0.105483 -0.029244 -0.111771 -0.172700 0.262858 0.092269 0.009010 -0.014612 -0.139354 -0.095400 0.152279 0.290210 -0.096869 0.029620 0.068298 -0.102220 -0.051101 0.102208 -0.149782 0.101065 0.063585 0.057404 -0.182787 -0.182461 -0.131068 0.052845 0.074911 -0.150395 0.206389 -0.157991 0.014122 0.160264 -0.011916 0.002913 -0.057708 0.073220 0.068298 -0.155315 -0.113015 0.040054 -0.044416 -0.077615 0.140302 0.017848 0.083299 0.028536 -0.024458 -0.079610 0.001307 -0.130061 -0.013443 -0.038267 -0.154685 0.013892 0.156742 -0.041108 0.050595 0.019419 0.102011 -0.013042 0.006233 0.021391 -0.171094 0.031792 -0.001831 -0.239962 0.026815 0.097243 -0.119689 -0.001474 -0.143676 -0.055476 -0.097929 -0.052865 0.065192 -0.020513 -0.037099 -0.057201 0.033300 0.077514 0.049555 0.042576 -0.167579 0.087052 -0.082710 0.249136 -0.175266 0.002536 -0.009905 0.031398 0.118029 -0.174732 -0.268607 -0.030795 0.136780 0.192459
28 -0.108628 -0.141073 0.112669 0.038695 0.076859 -0.140399 0.098743 0.030022 0.000298 0.014651 -0.074994 0.108464 0.098073 -0.175638 -0.078369 -0.178556 0.037338 -0.107400 0.101126 0.132147 0.186852 -0.011899 0.129459 -0.001888 0.027736 -0.037134 -0.065652 0.044128 -0.005656 0.122579 -0.008093 0.116527 -0.132746 0.025684 -0.110454 -0.125808 0.224766 0.110681 0.070779 0.059161 -0.212427 0.018615 0.125335 0.213937 -0.036092 0.028136 0.000801 -0.157351 -0.097089 0.070234 -0.017275 0.116258 0.116570 0.100968 -0.224509 -0.143918 -0.115465 -0.019314 -0.030118 -0.039858 0.113519 -0.136202 -0.071871 0.130712 0.099062 -0.100649 -0.031081 -0.045476 0.068456 -0.094945 -0.033462 0.006034 0.004925 -0.059170 0.065772 -0.100329 0.058415 0.116246 -0.028739 0.073500 -0.026646 -0.244782 -0.048046 -0.205665 -0.115696 0.195382 0.033679 -0.035654 -0.065792 0.026202 -0.008352 0.038878 0.011400 -0.037884 -0.182917 0.140076 -0.152917 -0.032641 0.052471 -0.025119 -0.252345 0.087163 -0.120829 -0.051548 -0.055319 0.002484 0.156117 0.007512 -0.067591 -0.095195 0.038004 -0.031906 0.007212 0.021266 -0.110917 0.059383 -0.073938 0.265986 -0.177962 0.108492 -0.046761 -0.081150 0.006954 -0.203908 -0.198841 0.121555 0.081338 0.118410
9 -0.107038 -0.145237 0.107320 0.040204 0.074693 -0.148244 0.102863 0.040370 0.012023 0.015042 -0.077770 0.116801 0.102408 -0.191734 -0.075131 -0.184175 0.035377 -0.108914 0.101351 0.133388 0.192380 -0.012601 0.134944 -0.006750 0.032528 -0.036905 -0.067834 0.040473 -0.007927 0.128462 -0.007185 0.119848 -0.142423 0.021424 -0.113106 -0.131693 0.234911 0.110529 0.067227 0.061792 -0.220845 0.014626 0.131254 0.227107 -0.039344 0.028945 0.006608 -0.163339 -0.095543 0.072580 -0.022413 0.118608 0.115663 0.107897 -0.232788 -0.150216 -0.120514 -0.013808 -0.024341 -0.047378 0.121625 -0.140485 -0.077992 0.135862 0.100601 -0.099657 -0.029186 -0.046784 0.072146 -0.096478 -0.034720 0.006438 0.010875 -0.059135 0.073826 -0.099878 0.058924 0.116692 -0.027495 0.068733 -0.022927 -0.247220 -0.054582 -0.209945 -0.122097 0.191239 0.038073 -0.040341 -0.064389 0.026618 -0.002499 0.037787 0.016599 -0.031410 -0.193236 0.138148 -0.150657 -0.045910 0.052526 -0.016035 -0.256900 0.078445 -0.125773 -0.051260 -0.059787 -0.005191 0.153578 0.006418 -0.074940 -0.096771 0.040321 -0.028178 0.016740 0.022423 -0.120128 0.063860 -0.078166 0.280979 -0.189152 0.113972 -0.049273 -0.080488 0.011790 -0.211670 -0.208601 0.125285 0.088733 0.125660
30 -0.094712 -0.149255 0.095600 0.046655 0.060253 -0.142149 0.105874 0.044398 0.019427 0.015090 -0.075890 0.117285 0.095358 -0.186407 -0.065806 -0.178640 0.029957 -0.116203 0.093401 0.124496 0.187715 -0.023307 0.123276 -0.007956 0.041819 -0.040353 -0.064962 0.037867 -0.008562 0.121802 -0.010895 0.106663 -0.132446 0.015199 -0.113788 -0.125532 0.226620 0.108843 0.063466 0.048170 -0.204905 0.010963 0.128292 0.224836 -0.040018 0.030635 0.011904 -0.153986 -0.088634 0.076798 -0.030143 0.116686 0.112658 0.094231 -0.220986 -0.146929 -0.120348 -0.007393 -0.011674 -0.051238 0.125321 -0.140258 -0.061248 0.133148 0.090605 -0.088764 -0.033572 -0.036224 0.073250 -0.098979 -0.038967 0.007478 0.003648 -0.058386 0.074030 -0.088560 0.061703 0.106425 -0.023642 0.056789 -0.026411 -0.230189 -0.050511 -0.188241 -0.120189 0.174106 0.042537 -0.037136 -0.055386 0.025976 0.006748 0.029562 0.013447 -0.026339 -0.182206 0.130264 -0.137196 -0.055444 0.050703 -0.008758 -0.232548 0.074114 -0.122961 -0.055596 -0.063142 -0.010759 0.144051 0.001816 -0.069663 -0.088776 0.032890 -0.023292 0.012021 0.019365 -0.115961 0.062701 -0.076405 0.265437 -0.181756 0.104082 -0.046215 -0.064188 0.021635 -0.200666 -0.202850 0.108757 0.092171 0.127100
8 -0.065979 -0.168270 0.071734 0.052381 0.015625 -0.147584 0.117746 0.098078 0.064470 0.007364 -0.057442 0.153047 0.090183 -0.212004 -0.014820 -0.172518 -0.006275 -0.150970 0.099539 0.079078 0.164492 -0.049876 0.063657 -0.021371 0.068211 -0.013602 -0.077332 0.036528 0.021944 0.102311 -0.032192 0.081852 -0.122780 0.007296 -0.112411 -0.151099 0.250647 0.090575 0.048188 0.025718 -0.163660 -0.051778 0.129479 0.262753 -0.064792 0.029604 0.027805 -0.125756 -0.075772 0.085552 -0.094000 0.092590 0.097084 0.083069 -0.214158 -0.160685 -0.124475 0.024837 0.015903 -0.099618 0.159373 -0.151082 -0.027377 0.144844 0.039815 -0.038496 -0.038870 0.014115 0.068161 -0.124322 -0.084849 0.020792 -0.018271 -0.072092 0.103225 -0.026554 0.069908 0.056533 -0.018709 -0.013352 -0.006343 -0.189569 -0.038716 -0.112374 -0.134135 0.104234 0.101088 -0.037799 0.007155 0.017652 0.056756 0.005711 -0.000440 -0.014767 -0.175378 0.066245 -0.075664 -0.151037 0.027489 0.043042 -0.168395 0.024717 -0.130601 -0.050617 -0.069857 -0.033009 0.107381 -0.015187 -0.055522 -0.074046 0.023201 0.030002 0.038547 0.039588 -0.149366 0.073684 -0.080077 0.252683 -0.174717 0.043694 -0.030711 -0.022813 0.067673 -0.182071 -0.218634 0.031332 0.113613 0.152939
5 -0.039708 -0.197571 0.028926 0.070428 -0.023371 -0.149156 0.138395 0.144984 0.140810 -0.007529 -0.029791 0.201333 0.074532 -0.229116 0.032651 -0.159930 -0.046088 -0.207423 0.088391 0.039564 0.151850 -0.084284 0.009393 -0.022820 0.110371 -0.018921 -0.101095 0.007942 0.032723 0.085938 -0.047362 0.062019 -0.111650 -0.024862 -0.111408 -0.178856 0.265585 0.089489 0.013071 -0.010695 -0.134531 -0.101909 0.145991 0.296081 -0.095870 0.029536 0.064478 -0.101509 -0.056005 0.099031 -0.154768 0.101207 0.071008 0.053015 -0.185740 -0.183697 -0.131479 0.055722 0.075625 -0.153829 0.204999 -0.165844 0.015211 0.163618 -0.014990 0.006737 -0.049779 0.071743 0.072605 -0.153399 -0.118105 0.040054 -0.044056 -0.084417 0.138982 0.017749 0.080631 0.019769 -0.024660 -0.086131 0.003141 -0.133992 -0.017942 -0.040363 -0.160667 0.013442 0.157377 -0.037153 0.056134 0.018455 0.105007 -0.015980 0.004428 0.019871 -0.173984 0.029126 -0.006464 -0.242338 0.028518 0.103833 -0.125438 -0.003728 -0.146261 -0.058529 -0.097963 -0.058177 0.066943 -0.024577 -0.042653 -0.057384 0.025544 0.077072 0.053847 0.039831 -0.173177 0.088663 -0.081358 0.253424 -0.175042 0.002931 -0.011289 0.035398 0.117519 -0.174801 -0.268579 -0.030924 0.132468 0.199365
26 -0.111466 -0.137147 0.118877 0.037129 0.088891 -0.150616 0.100129 0.021328 -0.008932 0.015426 -0.081505 0.099791 0.106320 -0.180895 -0.087233 -0.180645 0.046891 -0.104566 0.102087 0.143950 0.203547 -0.006777 0.146420 0.003486 0.023852 -0.045999 -0.067405 0.042259 -0.014307 0.134479 -0.001404 0.123245 -0.139489 0.022014 -0.119245 -0.128064 0.229553 0.115512 0.072225 0.063781 -0.225132 0.028203 0.123035 0.210431 -0.033711 0.036476 -0.002577 -0.164762 -0.100887 0.076812 -0.001507 0.125352 0.118896 0.106391 -0.237128 -0.147464 -0.112866 -0.021529 -0.036594 -0.034299 0.114008 -0.138821 -0.082050 0.135780 0.107627 -0.110528 -0.028187 -0.061016 0.074715 -0.088265 -0.026308 0.001824 0.007504 -0.055683 0.066366 -0.115831 0.053218 0.124355 -0.027403 0.081646 -0.032970 -0.250617 -0.049260 -0.221475 -0.112938 0.210136 0.022078 -0.038628 -0.077137 0.025399 -0.018160 0.044602 0.018726 -0.035376 -0.187110 0.152504 -0.166632 -0.018730 0.060855 -0.035267 -0.265638 0.094376 -0.118280 -0.047116 -0.054534 0.006190 0.165446 0.007470 -0.065982 -0.092708 0.036191 -0.043184 0.007685 0.024503 -0.108990 0.061440 -0.070755 0.271934 -0.176472 0.115459 -0.049665 -0.092686 -0.002912 -0.218167 -0.197544 0.142354 0.074868 0.110550
11 -0.052797 -0.187416 0.042310 0.068107 -0.009640 -0.148209 0.126637 0.136009 0.123612 -0.006709 -0.038788 0.186169 0.078303 -0.220250 0.018592 -0.162572 -0.032851 -0.190449 0.089324 0.048822 0.156569 -0.077681 0.030131 -0.021884 0.097109 -0.023051 -0.098229 0.014546 0.024282 0.087780 -0.037425 0.068575 -0.109019 -0.024620 -0.111843 -0.165075 0.262994 0.094722 0.020146 0.003948 -0.145103 -0.081574 0.148100 0.283701 -0.086573 0.030724 0.059819 -0.104372 -0.062845 0.096571 -0.131411 0.101317 0.075547 0.062152 -0.193086 -0.179247 -0.129130 0.047435 0.055635 -0.133672 0.192271 -0.160927 0.005995 0.160085 0.000477 -0.006518 -0.053626 0.055764 0.073724 -0.146307 -0.103956 0.034808 -0.036884 -0.079806 0.131320 0.004343 0.078295 0.032817 -0.025807 -0.062551 0.003780 -0.145442 -0.021465 -0.063248 -0.156041 0.040317 0.142536 -0.039294 0.038623 0.020447 0.085044 -0.010817 0.005642 0.014618 -0.171154 0.040462 -0.021276 -0.212284 0.026837 0.087588 -0.135716 0.011953 -0.142384 -0.052677 -0.091022 -0.050053 0.078911 -0.024391 -0.041944 -0.063814 0.029819 0.064728 0.043415 0.036714 -0.162544 0.079535 -0.084754 0.255062 -0.175460 0.013602 -0.013406 0.016864 0.104570 -0.178260 -0.256551 -0.015498 0.123272 0.185331
25 -0.105216 -0.142501 0.102950 0.036179 0.066615 -0.143808 0.096947 0.032012 0.011385 0.015320 -0.075804 0.106658 0.097125 -0.175891 -0.071832 -0.181252 0.037389 -0.114748 0.101522 0.128498 0.191831 -0.014682 0.126363 0.001351 0.034137 -0.040840 -0.063599 0.043497 -0.010021 0.124104 -0.008609 0.111512 -0.133294 0.016482 -0.114431 -0.125640 0.221437 0.112465 0.065491 0.052150 -0.211168 0.016254 0.119916 0.213515 -0.033820 0.034967 0.008212 -0.148575 -0.090269 0.074139 -0.024495 0.117413 0.112774 0.103933 -0.228722 -0.146929 -0.111452 -0.016384 -0.022927 -0.041992 0.114670 -0.132329 -0.067936 0.127930 0.087716 -0.095976 -0.031939 -0.038731 0.066632 -0.093164 -0.038161 0.003524 0.007030 -0.055622 0.067072 -0.099700 0.054806 0.108513 -0.022710 0.061319 -0.024231 -0.237569 -0.047792 -0.199436 -0.118664 0.182008 0.039204 -0.041823 -0.063109 0.020008 -0.008428 0.033622 0.015408 -0.036481 -0.184384 0.135310 -0.144341 -0.044060 0.052319 -0.017267 -0.246911 0.081020 -0.121370 -0.048884 -0.054177 -0.002936 0.150767 0.003018 -0.065143 -0.091252 0.034194 -0.028104 0.014019 0.022448 -0.118626 0.060978 -0.070306 0.264472 -0.175768 0.102202 -0.044763 -0.070336 0.010409 -0.205467 -0.199793 0.121146 0.078703 0.120923
20 -0.062011 -0.165584 0.060236 0.056872 0.007877 -0.145281 0.119923 0.101965 0.076370 0.002323 -0.052050 0.155363 0.089966 -0.206316 -0.012560 -0.161143 -0.017071 -0.156487 0.088899 0.070338 0.164475 -0.059166 0.061096 -0.017694 0.076735 -0.018773 -0.078182 0.024045 0.020159 0.094327 -0.033839 0.079810 -0.117822 -0.004892 -0.108848 -0.148791 0.247912 0.088828 0.034709 0.014080 -0.165781 -0.054053 0.132410 0.259470 -0.064390 0.027661 0.040863 -0.120618 -0.069594 0.083397 -0.100250 0.098679 0.091389 0.068805 -0.202495 -0.162156 -0.124655 0.023390 0.028580 -0.102912 0.172168 -0.147582 -0.020376 0.144827 0.034337 -0.033046 -0.042404 0.025306 0.067928 -0.119320 -0.082928 0.024102 -0.019209 -0.071975 0.106639 -0.021395 0.075917 0.054985 -0.018219 -0.017663 -0.003980 -0.179905 -0.031580 -0.109371 -0.135141 0.091726 0.100705 -0.038331 0.005591 0.022379 0.060652 0.008137 0.003642 -0.006168 -0.174613 0.068959 -0.059778 -0.157073 0.029296 0.056491 -0.167681 0.023307 -0.132627 -0.048837 -0.078402 -0.035684 0.095952 -0.013867 -0.047365 -0.066165 0.026191 0.035591 0.035888 0.035523 -0.148112 0.073634 -0.076989 0.258614 -0.176615 0.044495 -0.025352 -0.006600 0.072333 -0.184170 -0.229227 0.029779 0.110729 0.162589
29 -0.093014 -0.149855 0.093176 0.042296 0.054901 -0.147665 0.105643 0.052923 0.025463 0.013427 -0.067171 0.128690 0.093445 -0.191785 -0.054313 -0.177574 0.016801 -0.128142 0.101182 0.110502 0.184294 -0.029374 0.103439 -0.008919 0.042343 -0.032799 -0.068213 0.038994 0.007771 0.117817 -0.013837 0.100952 -0.130226 0.017347 -0.116769 -0.132939 0.238195 0.105086 0.063767 0.041171 -0.192946 -0.003463 0.125079 0.229590 -0.042744 0.033519 0.013846 -0.147859 -0.089324 0.078165 -0.045486 0.106485 0.105280 0.096121 -0.229089 -0.147105 -0.114512 0.002499 -0.008105 -0.059816 0.135047 -0.144045 -0.060908 0.135566 0.072825 -0.078295 -0.038362 -0.025170 0.072724 -0.099556 -0.053453 0.009086 -0.003651 -0.058722 0.081984 -0.068564 0.070217 0.093685 -0.019487 0.039282 -0.023654 -0.219631 -0.042416 -0.176544 -0.120793 0.160977 0.060460 -0.043334 -0.038806 0.017924 0.015107 0.026089 0.007413 -0.026678 -0.180227 0.119901 -0.126409 -0.073779 0.043758 -0.000228 -0.223284 0.065236 -0.123274 -0.049710 -0.061319 -0.012406 0.131823 -0.004833 -0.061527 -0.082815 0.035064 -0.008660 0.016923 0.026552 -0.128285 0.063460 -0.076470 0.262225 -0.175417 0.085527 -0.042213 -0.058928 0.026362 -0.200732 -0.203595 0.092830 0.091453 0.128807
31 -0.087722 -0.152945 0.095599 0.048334 0.048908 -0.150369 0.108409 0.057309 0.029415 0.013612 -0.066599 0.134294 0.100456 -0.198977 -0.051056 -0.180400 0.013412 -0.128715 0.100297 0.110014 0.185626 -0.032843 0.102651 -0.006024 0.050378 -0.029399 -0.068765 0.042314 0.004033 0.116749 -0.020439 0.107161 -0.136255 0.016252 -0.112392 -0.135462 0.238850 0.103602 0.062889 0.038727 -0.197205 -0.006512 0.130538 0.237833 -0.049157 0.030907 0.015094 -0.148908 -0.087584 0.082192 -0.053589 0.112943 0.107605 0.093803 -0.223727 -0.156386 -0.120617 -0.000254 -0.008279 -0.071359 0.142585 -0.145553 -0.058447 0.135055 0.071740 -0.076012 -0.040167 -0.022073 0.070460 -0.106679 -0.055194 0.009347 -0.002555 -0.064044 0.087498 -0.069716 0.070615 0.090726 -0.018942 0.036573 -0.017303 -0.222864 -0.045545 -0.172252 -0.126282 0.155562 0.060105 -0.042168 -0.036219 0.020854 0.015435 0.029224 0.012695 -0.026341 -0.189636 0.114839 -0.121816 -0.085821 0.043227 0.009926 -0.224175 0.061538 -0.126465 -0.055223 -0.067533 -0.014705 0.135770 -0.001834 -0.062003 -0.084234 0.030959 -0.009677 0.019075 0.026377 -0.128965 0.070443 -0.081347 0.274026 -0.186063 0.087891 -0.042660 -0.056322 0.032795 -0.204730 -0.214440 0.089387 0.093512 0.138598
22 -0.061147 -0.174233 0.062535 0.054049 0.010622 -0.150577 0.118590 0.102627 0.073660 0.002227 -0.054215 0.162812 0.091513 -0.216136 -0.008372 -0.171620 -0.017232 -0.162904 0.098434 0.075367 0.169765 -0.056132 0.062885 -0.018308 0.070739 -0.014929 -0.082999 0.027119 0.027444 0.101226 -0.034169 0.077533 -0.125698 0.001103 -0.115315 -0.157406 0.250710 0.090890 0.039500 0.013706 -0.159341 -0.061378 0.133011 0.270851 -0.067028 0.033360 0.032773 -0.121809 -0.069565 0.083967 -0.105268 0.095186 0.087469 0.077065 -0.208604 -0.164288 -0.122572 0.033091 0.029385 -0.106428 0.172328 -0.150615 -0.021084 0.151857 0.030008 -0.029777 -0.047276 0.026946 0.073657 -0.123396 -0.088961 0.027093 -0.019668 -0.075956 0.112310 -0.019257 0.074525 0.055929 -0.015993 -0.023809 -0.010869 -0.183116 -0.031874 -0.111565 -0.138606 0.089239 0.110501 -0.043182 0.013715 0.019860 0.065222 0.004207 0.002727 -0.014739 -0.177997 0.068456 -0.066574 -0.161272 0.033335 0.051078 -0.168589 0.025556 -0.131480 -0.049402 -0.074818 -0.032371 0.101338 -0.010990 -0.052765 -0.070877 0.029580 0.035422 0.040870 0.040878 -0.152683 0.073773 -0.082244 0.258406 -0.180478 0.038670 -0.026005 -0.014891 0.075001 -0.185612 -0.228980 0.026359 0.117053 0.164605
15 -0.100477 -0.142972 0.102953 0.037319 0.065040 -0.137304 0.100854 0.037851 0.013564 0.013976 -0.070285 0.114302 0.096298 -0.179120 -0.063932 -0.174411 0.025403 -0.113930 0.095233 0.118282 0.189417 -0.017996 0.120325 -0.003682 0.034120 -0.034704 -0.066685 0.040766 -0.003024 0.116445 -0.013001 0.110873 -0.131075 0.019985 -0.110837 -0.126024 0.222758 0.104959 0.068888 0.053731 -0.207715 0.011496 0.124445 0.219569 -0.033839 0.033811 0.005991 -0.153050 -0.090316 0.072034 -0.027937 0.111100 0.110619 0.100453 -0.227258 -0.148639 -0.120129 -0.013071 -0.015316 -0.047313 0.126973 -0.133503 -0.067125 0.126919 0.091181 -0.085534 -0.030543 -0.038481 0.074476 -0.090859 -0.036882 0.003577 0.008073 -0.060949 0.070077 -0.087948 0.066186 0.105411 -0.025887 0.055004 -0.022831 -0.230095 -0.047393 -0.195458 -0.122301 0.174908 0.042085 -0.043767 -0.054876 0.025574 0.002567 0.037620 0.014291 -0.033986 -0.189825 0.134268 -0.137359 -0.050257 0.050680 -0.007551 -0.235280 0.072786 -0.121888 -0.049504 -0.058103 -0.011637 0.144859 0.002168 -0.066854 -0.092265 0.035078 -0.023328 0.012336 0.019850 -0.120166 0.068490 -0.072299 0.272387 -0.185200 0.105046 -0.042063 -0.072516 0.021371 -0.200930 -0.205569 0.110107 0.088917 0.125934
18 -0.063236 -0.166012 0.061882 0.052569 0.015608 -0.146418 0.113824 0.100248 0.075197 0.008002 -0.053976 0.159308 0.091863 -0.209256 -0.014336 -0.170820 -0.012433 -0.155870 0.091146 0.079307 0.168917 -0.055153 0.065640 -0.015780 0.075893 -0.017440 -0.079962 0.029317 0.022771 0.100387 -0.030912 0.083516 -0.120175 0.001450 -0.110579 -0.152579 0.245495 0.092794 0.042776 0.021545 -0.165630 -0.047516 0.131012 0.259100 -0.066768 0.031316 0.032257 -0.123798 -0.070606 0.083310 -0.095102 0.094854 0.093440 0.080881 -0.207690 -0.158076 -0.122053 0.022064 0.023333 -0.101276 0.166570 -0.152284 -0.024359 0.144478 0.038770 -0.035154 -0.042821 0.018899 0.071634 -0.120921 -0.084757 0.022766 -0.015345 -0.075693 0.108960 -0.025168 0.078241 0.060413 -0.018252 -0.016571 -0.011771 -0.180857 -0.031781 -0.114629 -0.139018 0.097066 0.105191 -0.039637 0.002347 0.022776 0.056688 0.005075 0.006368 -0.012842 -0.180965 0.073473 -0.071237 -0.149723 0.033109 0.046506 -0.172612 0.032429 -0.130762 -0.051507 -0.075292 -0.032406 0.099518 -0.016000 -0.053043 -0.074143 0.026612 0.028581 0.032420 0.033665 -0.146571 0.070953 -0.079189 0.254303 -0.173313 0.044280 -0.028769 -0.018539 0.067559 -0.186238 -0.226382 0.029314 0.109590 0.157483
16 -0.098482 -0.138637 0.102981 0.040449 0.065403 -0.140330 0.102133 0.038775 0.011628 0.016821 -0.075765 0.114467 0.094613 -0.175889 -0.064836 -0.175022 0.027327 -0.113722 0.093322 0.119813 0.186112 -0.017307 0.125361 -0.005276 0.037450 -0.035788 -0.062838 0.040579 -0.007345 0.117024 -0.011843 0.112152 -0.135259 0.017138 -0.109106 -0.123127 0.226757 0.101814 0.063479 0.049583 -0.210063 0.018526 0.127586 0.217789 -0.033518 0.028481 0.011171 -0.150109 -0.091814 0.078195 -0.020693 0.112539 0.112439 0.101984 -0.222258 -0.144597 -0.117278 -0.010040 -0.017142 -0.052109 0.123585 -0.139405 -0.071149 0.124080 0.094770 -0.091600 -0.031841 -0.037793 0.069706 -0.096129 -0.034425 0.000309 0.008508 -0.059204 0.074419 -0.090852 0.066318 0.103963 -0.024656 0.061800 -0.019992 -0.235768 -0.046720 -0.195748 -0.118204 0.183885 0.040820 -0.037537 -0.055165 0.024595 -0.005508 0.037798 0.008388 -0.029945 -0.187248 0.137158 -0.138146 -0.050785 0.048436 -0.016529 -0.236619 0.077305 -0.114460 -0.053926 -0.062695 -0.010959 0.143534 0.000934 -0.065861 -0.086959 0.034361 -0.021291 0.008984 0.023897 -0.114878 0.067205 -0.076111 0.273640 -0.183129 0.103481 -0.045948 -0.069903 0.014930 -0.207352 -0.199148 0.115675 0.088187 0.127010
19 -0.099868 -0.136580 0.110431 0.034883 0.071933 -0.137725 0.094143 0.025839 0.004346 0.017937 -0.078240 0.107141 0.096138 -0.172813 -0.076547 -0.172246 0.033007 -0.106588 0.101473 0.133338 0.190610 -0.015292 0.130075 0.000314 0.029811 -0.034375 -0.061675 0.043569 -0.011031 0.120772 -0.007517 0.116075 -0.134920 0.019555 -0.110620 -0.121374 0.215450 0.110141 0.072509 0.058939 -0.212502 0.023084 0.122153 0.208949 -0.028050 0.031690 0.006735 -0.158579 -0.092493 0.072122 -0.015710 0.113763 0.110619 0.100136 -0.220840 -0.138969 -0.116985 -0.015614 -0.021160 -0.041699 0.112938 -0.134503 -0.072030 0.127737 0.098527 -0.102351 -0.026217 -0.049571 0.067865 -0.089877 -0.029114 0.001911 0.010995 -0.053623 0.062028 -0.103456 0.061962 0.114640 -0.026603 0.069419 -0.025469 -0.239209 -0.049579 -0.209018 -0.117400 0.189871 0.032812 -0.037452 -0.068718 0.022444 -0.010907 0.043064 0.016908 -0.033162 -0.187140 0.144009 -0.150889 -0.032854 0.052504 -0.024900 -0.246823 0.083508 -0.118752 -0.052390 -0.057194 -0.002356 0.149691 0.004199 -0.070188 -0.092403 0.034000 -0.033455 0.010342 0.018290 -0.108625 0.065755 -0.069169 0.271850 -0.183923 0.116942 -0.048539 -0.080089 0.005849 -0.207701 -0.198435 0.125964 0.077703 0.113984
17 -0.050168 -0.187932 0.043573 0.071007 -0.015847 -0.151675 0.134146 0.138348 0.123604 0.000487 -0.039373 0.194070 0.084921 -0.227359 0.012746 -0.159824 -0.032129 -0.196796 0.090594 0.056707 0.158535 -0.082495 0.033238 -0.026520 0.103530 -0.018290 -0.100108 0.015581 0.030367 0.097996 -0.038225 0.071929 -0.115090 -0.019413 -0.120179 -0.175480 0.270050 0.094768 0.020911 0.002907 -0.154454 -0.087790 0.147923 0.295607 -0.088531 0.026450 0.059024 -0.109449 -0.064053 0.099847 -0.137044 0.099006 0.079130 0.062364 -0.198745 -0.182815 -0.138063 0.050992 0.062469 -0.141620 0.198965 -0.164276 0.002248 0.159212 0.007204 -0.006004 -0.052218 0.055926 0.074523 -0.145115 -0.109674 0.035000 -0.033289 -0.081628 0.134330 0.008518 0.079714 0.036084 -0.020260 -0.063735 0.003431 -0.156007 -0.018366 -0.063371 -0.158893 0.046764 0.144356 -0.043687 0.041582 0.018543 0.084950 -0.006098 0.002049 0.013304 -0.182186 0.046362 -0.023776 -0.214649 0.030347 0.087772 -0.143344 0.007992 -0.146294 -0.054449 -0.092730 -0.052757 0.080582 -0.023963 -0.047879 -0.060114 0.030793 0.063783 0.051679 0.042018 -0.167324 0.084815 -0.088156 0.268310 -0.184978 0.015851 -0.013429 0.019902 0.105506 -0.181606 -0.266559 -0.012488 0.132504 0.193362
23 -0.103468 -0.134299 0.105957 0.039728 0.075086 -0.140018 0.097113 0.033243 0.003415 0.015989 -0.079278 0.107150 0.100161 -0.180451 -0.079724 -0.174860 0.036868 -0.101018 0.102242 0.137887 0.191669 -0.014488 0.130886 0.000677 0.032053 -0.039631 -0.065733 0.039992 -0.013920 0.127714 -0.006365 0.118259 -0.140608 0.023652 -0.115380 -0.124988 0.224888 0.106230 0.068654 0.061407 -0.217386 0.026015 0.126440 0.215322 -0.028856 0.028595 0.002785 -0.157741 -0.095790 0.072429 -0.011579 0.114245 0.120041 0.101851 -0.229804 -0.147130 -0.118263 -0.017792 -0.025102 -0.044874 0.115552 -0.137040 -0.074614 0.128734 0.106420 -0.102540 -0.026997 -0.048676 0.073968 -0.086890 -0.030457 0.001939 0.014737 -0.054946 0.062890 -0.102094 0.063239 0.117365 -0.020093 0.075841 -0.022081 -0.249630 -0.049098 -0.213292 -0.119233 0.200105 0.029637 -0.039012 -0.071319 0.023261 -0.010320 0.043088 0.010522 -0.036007 -0.197284 0.144502 -0.155206 -0.036037 0.051773 -0.019262 -0.257451 0.082981 -0.115928 -0.056182 -0.060291 -0.008051 0.150956 0.001716 -0.069562 -0.092435 0.032812 -0.035746 0.008594 0.016996 -0.116320 0.064632 -0.076788 0.278835 -0.186943 0.118715 -0.047870 -0.078889 0.005501 -0.215293 -0.200008 0.126737 0.084584 0.118792
10 -0.082984 -0.151827 0.083825 0.047473 0.046427 -0.138795 0.108748 0.066306 0.044268 0.006767 -0.061008 0.134515 0.089400 -0.188665 -0.045120 -0.165753 0.014668 -0.128765 0.093879 0.101850 0.177244 -0.035227 0.093451 -0.004616 0.050725 -0.031955 -0.070855 0.031821 0.003943 0.107747 -0.020242 0.093229 -0.124587 0.012575 -0.114435 -0.136035 0.234005 0.096151 0.050899 0.034031 -0.187897 -0.015302 0.132470 0.236591 -0.046618 0.032891 0.024875 -0.138357 -0.075706 0.076255 -0.053662 0.106437 0.102528 0.088220 -0.214937 -0.147909 -0.114000 0.002818 -0.002019 -0.068917 0.139473 -0.140069 -0.051437 0.135006 0.063977 -0.063544 -0.038870 -0.015249 0.065350 -0.109937 -0.054212 0.009740 -0.002353 -0.061601 0.089841 -0.059518 0.065935 0.082045 -0.025156 0.023842 -0.020507 -0.208103 -0.038903 -0.150023 -0.127937 0.138869 0.064988 -0.042018 -0.027866 0.019472 0.026339 0.023901 0.012280 -0.017203 -0.178893 0.108070 -0.107157 -0.097950 0.042323 0.017038 -0.207727 0.054491 -0.121658 -0.049338 -0.069243 -0.019085 0.127399 -0.000794 -0.061828 -0.076893 0.036261 -0.003347 0.023866 0.026528 -0.126215 0.067421 -0.073254 0.260352 -0.176042 0.073232 -0.036049 -0.047166 0.038668 -0.192622 -0.206928 0.073676 0.093869 0.137501
21 -0.084299 -0.141022 0.083661 0.040253 0.040173 -0.137752 0.100814 0.058369 0.036019 0.013715 -0.061909 0.125140 0.090330 -0.187288 -0.044738 -0.165388 0.013638 -0.123957 0.094202 0.100261 0.172618 -0.031644 0.092002 -0.006119 0.049657 -0.029956 -0.065838 0.035669 0.004910 0.106836 -0.014998 0.092884 -0.123474 0.012713 -0.108140 -0.131458 0.221483 0.100054 0.056636 0.039452 -0.182863 -0.008328 0.120096 0.222342 -0.049204 0.028813 0.019302 -0.133680 -0.075922 0.074351 -0.047321 0.103266 0.101333 0.085065 -0.208055 -0.143927 -0.112874 0.000309 -0.004459 -0.063791 0.129608 -0.134159 -0.047371 0.131248 0.069982 -0.066654 -0.036017 -0.018476 0.065895 -0.106660 -0.051408 0.007951 -0.002557 -0.060084 0.085324 -0.062817 0.062262 0.080418 -0.019633 0.030209 -0.018278 -0.205193 -0.043020 -0.159073 -0.124775 0.137486 0.062369 -0.040464 -0.027127 0.019462 0.024043 0.024159 0.006328 -0.018749 -0.178104 0.102935 -0.110962 -0.086875 0.042027 0.013057 -0.206612 0.053478 -0.120630 -0.047098 -0.061299 -0.015216 0.123260 -0.006989 -0.061592 -0.082082 0.035387 0.000988 0.020478 0.027937 -0.127397 0.068939 -0.077241 0.255356 -0.172400 0.081808 -0.037130 -0.047867 0.036729 -0.194004 -0.203782 0.078869 0.097402 0.130908
13 -0.064099 -0.164439 0.069892 0.048977 0.017910 -0.147266 0.117299 0.091048 0.065372 0.007905 -0.058648 0.148035 0.092756 -0.211889 -0.017482 -0.171461 -0.010109 -0.154565 0.093745 0.076810 0.172243 -0.049542 0.063391 -0.015319 0.063951 -0.019796 -0.074907 0.035264 0.021979 0.102055 -0.034185 0.084813 -0.124979 0.001110 -0.112510 -0.153055 0.251479 0.097303 0.045799 0.021413 -0.163768 -0.047802 0.131245 0.261606 -0.063273 0.032748 0.031045 -0.124972 -0.077536 0.086676 -0.092204 0.100244 0.096515 0.084376 -0.215087 -0.164329 -0.126042 0.020934 0.022461 -0.099460 0.164020 -0.148188 -0.030776 0.141712 0.043584 -0.042633 -0.044402 0.013308 0.074290 -0.124342 -0.083874 0.020176 -0.016129 -0.075552 0.103565 -0.035462 0.071210 0.058510 -0.021872 -0.013467 -0.008983 -0.192772 -0.036814 -0.121408 -0.137734 0.104306 0.100979 -0.039355 -0.001353 0.025262 0.057014 0.006625 -0.001199 -0.019038 -0.177063 0.072776 -0.077543 -0.148967 0.029707 0.042823 -0.173770 0.032581 -0.130389 -0.051749 -0.074135 -0.034496 0.111271 -0.015256 -0.054788 -0.077409 0.031495 0.025304 0.034141 0.040553 -0.150592 0.069035 -0.082174 0.261394 -0.173792 0.045652 -0.028587 -0.018104 0.068524 -0.184772 -0.225396 0.041686 0.113637 0.160691
27 -0.093195 -0.152101 0.099267 0.038223 0.062269 -0.143894 0.105147 0.051176 0.015396 0.016167 -0.075661 0.118038 0.098555 -0.186354 -0.063772 -0.182139 0.030277 -0.119611 0.101314 0.115023 0.190926 -0.019863 0.117384 -0.000094 0.040829 -0.035692 -0.069554 0.046305 -0.004687 0.120827 -0.013873 0.106018 -0.137888 0.016127 -0.108374 -0.133159 0.227707 0.103887 0.065099 0.046217 -0.206571 0.005469 0.126062 0.228728 -0.039240 0.033297 0.013448 -0.151486 -0.088278 0.078484 -0.031798 0.114656 0.108357 0.104367 -0.225949 -0.151295 -0.118744 -0.005434 -0.012537 -0.053688 0.124226 -0.135953 -0.065924 0.132115 0.085303 -0.085196 -0.035664 -0.030432 0.069676 -0.099898 -0.049376 0.011498 0.002784 -0.064696 0.072693 -0.088447 0.066141 0.097803 -0.025384 0.053171 -0.024997 -0.233310 -0.048679 -0.182753 -0.127591 0.172823 0.051944 -0.039715 -0.053994 0.025683 0.003173 0.027835 0.012228 -0.031055 -0.190892 0.126866 -0.134460 -0.066602 0.050085 -0.008511 -0.240480 0.072344 -0.118561 -0.056500 -0.060470 -0.006777 0.147853 -0.002810 -0.071296 -0.086201 0.035745 -0.020053 0.014631 0.023643 -0.121499 0.062520 -0.076004 0.270634 -0.185469 0.099191 -0.047491 -0.062711 0.024138 -0.207405 -0.208254 0.106868 0.091689 0.129495
12 -0.064924 -0.168886 0.060634 0.051604 0.009377 -0.145595 0.113821 0.097035 0.074366 0.005449 -0.046404 0.160384 0.086227 -0.205221 -0.011396 -0.159614 -0.016066 -0.156570 0.093544 0.069283 0.163164 -0.051914 0.059077 -0.018664 0.069686 -0.021803 -0.080228 0.027934 0.021599 0.097465 -0.029772 0.081050 -0.122283 -0.001440 -0.110197 -0.149596 0.242687 0.093137 0.037012 0.018371 -0.158856 -0.056220 0.133608 0.257583 -0.069417 0.031827 0.037031 -0.119655 -0.074019 0.083241 -0.099900 0.099456 0.087012 0.068985 -0.204759 -0.164344 -0.120368 0.028924 0.028020 -0.101222 0.167365 -0.146693 -0.022966 0.146626 0.027416 -0.030627 -0.039329 0.024062 0.071083 -0.118625 -0.079856 0.027197 -0.018229 -0.070629 0.106460 -0.023129 0.074319 0.056228 -0.018387 -0.018488 -0.007005 -0.172905 -0.034127 -0.103459 -0.136893 0.089742 0.102116 -0.038264 0.007360 0.016322 0.058857 0.007980 0.001824 -0.008425 -0.168067 0.062217 -0.059470 -0.159718 0.033062 0.051689 -0.168181 0.022230 -0.127911 -0.049551 -0.074225 -0.037672 0.098108 -0.013537 -0.045899 -0.070749 0.023054 0.032657 0.037041 0.038188 -0.143778 0.074388 -0.079205 0.251812 -0.173937 0.034848 -0.026893 -0.012013 0.071801 -0.175724 -0.226350 0.026542 0.105874 0.158807
